25 100
the -0.004660 0.000194 0.002049 0.003994 -0.003919 0.003908 -0.000646 0.004457 -0.005752 -0.004208 0.005000 0.001750 -0.001139 -0.004033 0.000503 -0.005347 -0.001983 -0.002098 0.001793 0.001197 0.003891 0.004768 0.002335 0.001229 -0.001037 0.004232 -0.003191 0.003770 -0.002058 0.000605 0.001908 -0.002263 -0.003471 -0.000323 0.003628 0.001136 -0.003048 0.004140 -0.000820 0.005016 0.000633 -0.004989 -0.003198 0.004922 0.002030 0.003966 -0.001969 0.000186 0.001702 0.001590 -0.002969 0.000003 -0.002491 0.003391 0.005379 -0.004568 0.001923 -0.001757 0.001388 -0.003178 0.000736 -0.000999 -0.002356 0.004315 0.003745 0.000930 -0.002516 0.004424 0.002795 0.002575 -0.002907 0.003120 -0.003101 0.001226 0.001998 0.002330 -0.002311 0.001603 0.003981 0.000701 -0.004204 -0.002957 -0.004462 -0.002935 -0.004188 0.003225 -0.005011 -0.002497 0.003223 0.005384 0.000992 0.004927 -0.005238 0.005448 -0.002644 0.003086 0.003038 0.004580 -0.000592 0.004499
and 0.000094 -0.001213 0.001976 -0.000505 0.001223 0.004517 0.002787 -0.001661 -0.004069 -0.003025 0.000407 -0.000989 0.002933 0.004304 -0.003026 0.003455 0.004666 0.004337 -0.004511 -0.004224 -0.004630 -0.001828 -0.004045 -0.001936 -0.001338 0.004020 0.000037 -0.002242 -0.000195 0.001130 -0.003748 0.002555 0.003240 0.003324 0.003632 -0.001208 -0.000309 -0.003910 -0.002679 0.004394 -0.002038 0.003676 0.003742 0.004336 -0.003532 0.003497 0.001362 -0.002778 -0.001539 -0.003342 -0.000252 -0.004114 -0.003261 -0.003272 0.001702 0.000625 0.003342 -0.002388 0.001307 -0.004529 -0.000001 0.003263 0.004563 -0.004820 -0.002814 -0.002832 -0.004484 -0.004830 0.000015 -0.004403 -0.002104 0.001586 -0.001860 -0.002225 0.000545 -0.001220 0.001886 -0.000144 0.001123 -0.001546 -0.002142 -0.003537 0.004050 0.003073 0.004282 -0.003109 0.004045 0.004115 -0.002231 -0.002183 0.000506 -0.003367 -0.000599 -0.002874 0.004219 0.000114 0.004305 0.001509 -0.000377 0.004531
of 0.001143 0.004240 0.001560 -0.001914 -0.002692 0.001062 0.005817 -0.002839 -0.001258 -0.001872 0.002701 0.003738 -0.000860 -0.003604 -0.005524 -0.003890 -0.002240 0.000729 0.004604 -0.004303 0.004817 0.002156 0.003319 0.005418 -0.000935 -0.000233 0.002270 -0.000402 -0.002133 -0.003795 -0.002064 0.003144 0.001551 0.002598 0.001285 -0.003677 0.002425 -0.002260 -0.005566 0.004901 -0.000918 -0.001731 0.002416 0.006314 -0.004558 -0.003271 -0.001991 -0.002841 0.000068 0.003949 0.003348 0.001755 -0.002464 -0.003212 0.003028 -0.002780 0.000149 0.002602 -0.002670 -0.004586 -0.005704 -0.002973 0.003330 -0.004083 -0.003983 -0.005251 0.002111 -0.002980 -0.000605 -0.003997 -0.001346 -0.000863 -0.000777 -0.001069 -0.003931 0.002434 -0.005169 -0.002084 -0.002516 -0.002285 0.001632 0.001022 -0.003587 0.000436 -0.001806 0.002447 -0.002874 0.003851 -0.000428 0.000539 -0.002480 -0.003288 -0.001061 0.005814 -0.004472 -0.002119 0.002893 0.002861 -0.002543 -0.001461
in 0.004934 0.000663 0.004213 0.001154 -0.001089 -0.000439 0.001413 0.000480 0.004343 0.004514 -0.001273 0.004846 -0.003303 -0.003814 -0.004044 0.000088 -0.004738 0.004278 0.003356 -0.004921 -0.003234 -0.001929 -0.003593 0.003229 -0.001545 0.003966 0.001015 0.003445 0.003580 0.003845 -0.000306 0.000830 0.003104 -0.002139 -0.000204 0.000732 -0.004467 0.000681 -0.001003 0.002902 -0.001953 0.004064 0.000873 -0.003208 0.002850 0.000730 -0.004419 -0.000997 0.001830 0.004387 -0.004783 0.004894 -0.000941 0.004389 0.000895 0.003462 0.000581 0.001548 -0.002229 0.000863 0.002192 0.003498 0.002620 0.001619 0.003275 -0.001795 0.001894 -0.000674 -0.001293 -0.001108 -0.000891 -0.002163 0.001334 -0.000848 0.004599 0.001598 -0.003306 -0.001107 -0.001900 0.002858 0.003949 0.004609 0.001622 -0.002054 -0.002408 0.003423 0.000411 0.003197 0.000182 0.002098 -0.000082 0.002330 0.000878 -0.000326 -0.001659 -0.004764 -0.001370 -0.004355 0.004762 -0.003716
HIT -0.003625 -0.002254 0.000908 -0.002638 -0.000171 -0.001687 0.003495 -0.000972 -0.000513 0.002346 -0.003248 -0.000750 -0.002068 0.001709 0.004266 -0.000169 0.002839 -0.000530 0.001428 -0.003510 -0.000488 0.003962 0.000727 0.002886 0.000094 -0.000322 0.003770 -0.004541 0.001148 0.004009 0.000347 -0.003041 0.003393 -0.002176 0.001073 0.000845 0.004606 0.001298 0.003603 -0.005968 0.005032 -0.004030 -0.001891 0.003285 -0.005076 0.002684 0.003533 -0.000690 -0.002701 0.003429 0.000204 -0.004156 0.004970 0.003677 -0.000943 0.003808 -0.000873 0.002410 -0.001374 0.000970 -0.002885 0.004450 -0.001783 -0.004565 -0.003428 -0.004609 0.002441 0.000798 0.002725 0.000259 0.003241 0.001588 0.003346 -0.000832 0.001012 -0.003270 -0.001683 -0.003024 -0.001268 -0.002700 -0.000903 0.005191 -0.001723 0.004918 0.001520 -0.001818 0.003918 0.000911 -0.002933 0.002375 -0.000933 -0.002121 -0.000861 0.001728 -0.002043 0.002526 -0.002230 -0.000479 -0.000210 0.002630
to 0.004213 -0.000665 -0.004145 0.003299 -0.000045 -0.002144 0.005173 0.004304 -0.002380 -0.002830 0.000700 0.003387 -0.001729 0.000789 -0.003668 -0.003148 0.002670 -0.003703 -0.002069 0.001776 -0.004445 -0.004627 -0.001873 -0.001230 -0.001385 0.002667 -0.004341 -0.001832 0.001446 -0.003886 0.003550 0.001771 -0.003854 -0.002763 0.002439 -0.001134 0.000378 0.003813 -0.003921 0.004371 -0.004393 -0.004196 -0.002763 0.003228 -0.000724 0.001174 -0.003135 -0.003483 0.000121 0.002723 -0.000169 0.003696 0.001906 -0.002863 -0.002899 -0.001281 0.002436 0.004624 0.003382 -0.002315 -0.001307 0.001023 0.000592 -0.001529 -0.004322 0.001992 -0.003820 0.003605 0.003577 0.001944 -0.000063 0.001654 -0.001014 0.002808 0.002505 -0.003575 -0.002250 -0.001835 -0.001684 0.000383 -0.004574 0.002108 -0.003055 -0.000658 -0.000491 -0.001646 -0.001052 -0.003111 -0.004853 0.000532 0.000704 -0.003967 -0.002473 -0.001791 0.003159 -0.003660 0.000482 0.000672 -0.001802 -0.001839
first 0.005416 -0.001975 -0.000932 0.005639 0.002091 0.005147 -0.004532 -0.000554 -0.004328 -0.002370 0.002654 0.003548 -0.000602 -0.002489 -0.000578 -0.000675 0.000466 0.000819 -0.000265 0.002347 -0.002389 0.001969 0.005288 -0.004792 0.002221 -0.004202 0.000312 0.001169 -0.002808 0.004830 0.001332 -0.002286 0.002875 -0.004745 0.002042 -0.005152 0.001502 -0.002508 0.000831 0.003289 0.000384 0.000797 0.003116 0.005010 0.001465 -0.000152 -0.000973 0.003663 0.002500 -0.002760 -0.000059 0.005260 -0.003726 0.003926 0.004415 -0.000096 -0.004748 -0.003831 0.004487 -0.005891 -0.002321 0.001656 -0.003482 0.005339 -0.003996 0.000015 0.001505 -0.002851 0.000027 -0.000289 0.002443 0.001143 -0.001100 0.001498 0.000086 -0.000101 0.000463 -0.004490 0.002935 0.000874 0.004756 -0.001902 -0.000711 0.004222 0.000296 0.003142 -0.001434 0.002216 0.004094 -0.002173 0.002952 0.005529 -0.006146 -0.001809 -0.004835 0.002961 -0.004276 0.006457 -0.001107 0.004573
a -0.004271 -0.002912 -0.002026 -0.003307 0.001366 -0.001054 0.002829 -0.003234 0.002383 -0.002555 0.000635 -0.001896 -0.004221 -0.002419 0.002212 0.000201 0.000278 -0.003231 0.000489 0.005236 0.003120 0.000777 0.004577 0.003761 0.000981 -0.004712 -0.004025 -0.004234 -0.000408 -0.001346 0.004801 -0.003446 0.004541 0.002663 0.002878 0.001700 0.001416 -0.000206 -0.004482 -0.001856 -0.000010 0.002392 -0.000371 -0.001019 -0.003514 -0.004917 0.002618 -0.001628 0.004713 -0.002970 -0.001467 -0.000035 0.002611 -0.000369 -0.004001 -0.001767 0.000037 0.001712 0.002622 -0.003256 -0.004375 0.000091 0.002977 -0.004751 0.002030 0.001990 -0.000620 0.004265 0.001346 -0.004712 -0.000075 0.003659 0.003531 0.001506 0.001670 0.000837 -0.001854 0.000960 0.001753 -0.001376 0.003495 -0.003310 0.002562 -0.002155 0.002880 -0.000875 0.003137 -0.001735 -0.002633 0.002483 -0.001852 0.002233 0.002690 -0.003063 -0.002554 -0.002910 -0.003608 -0.001512 -0.004587 -0.003907
research 0.003966 -0.003074 0.001112 0.003861 -0.000881 0.004005 -0.001656 0.001328 0.001838 -0.002485 -0.005136 -0.000699 0.004172 -0.001757 0.002480 -0.003447 -0.001725 -0.003697 0.002513 0.001785 0.002078 -0.002377 0.002023 -0.002341 -0.000864 -0.001360 -0.001242 -0.004707 0.001581 0.001981 0.001251 0.001679 -0.003364 -0.003505 0.000145 0.003722 -0.002872 -0.000257 -0.000977 -0.000127 -0.003422 -0.001817 -0.002550 0.003553 0.003017 -0.000817 0.000938 -0.003769 0.000072 -0.001426 0.003542 0.001806 0.001717 -0.003812 -0.000458 0.005006 0.004545 0.001736 -0.003684 0.001415 0.000514 -0.000090 -0.000625 0.000745 0.003401 0.002566 0.001007 0.004401 -0.004413 0.005034 -0.004510 -0.003315 -0.000803 -0.004059 0.001212 -0.004628 -0.002771 -0.004746 0.001849 0.001559 -0.001345 -0.002560 0.002344 -0.001500 0.002882 -0.000238 0.000358 -0.004742 0.000933 -0.001360 -0.002822 -0.000925 -0.001057 0.000039 0.004725 -0.001682 0.002761 0.000417 0.003907 -0.001785
with -0.001849 0.003898 0.002532 0.002451 -0.000271 -0.003219 -0.004468 -0.001712 -0.004383 0.002140 0.001610 -0.000878 0.002628 0.000415 -0.004466 -0.003610 -0.003022 -0.001734 -0.004376 0.001060 0.000291 0.001156 -0.000667 0.003551 -0.000448 -0.004942 0.003865 0.001487 0.003200 0.004277 -0.004448 -0.002569 -0.004576 -0.000774 0.003370 -0.004000 -0.000241 -0.003574 0.002767 0.003144 -0.004468 -0.000279 -0.002764 0.004335 0.004366 0.001036 0.004728 -0.001549 0.003882 -0.000565 -0.002528 0.004304 0.001961 -0.004549 0.003411 0.002011 0.000996 0.002435 -0.002545 0.001350 0.003197 -0.004584 -0.003693 0.003366 0.001181 0.000341 -0.002467 -0.001892 0.003724 -0.000613 -0.004334 0.003893 -0.002866 0.003199 0.003565 -0.000166 0.000894 0.000303 0.001091 0.003486 -0.002288 0.003925 0.000630 -0.003924 -0.002768 0.000847 -0.002648 -0.003836 -0.003509 0.003502 0.000935 0.004359 -0.001346 0.001080 0.001033 0.001180 -0.004432 0.002266 0.004439 0.000178
for -0.002866 -0.000461 0.003659 0.001110 -0.000700 0.000302 0.000996 -0.000345 -0.003330 -0.003794 -0.003595 -0.004190 0.000541 0.003187 -0.001894 -0.004412 -0.000860 0.000952 -0.000467 0.002926 0.004427 0.003747 0.002178 -0.000123 0.001778 -0.004937 0.004882 -0.003365 0.004176 0.003124 0.003041 -0.002065 -0.002725 -0.000842 0.003765 -0.000813 0.004631 -0.001545 0.000928 0.004970 0.001351 -0.004674 -0.000415 -0.001310 0.000384 -0.002218 -0.003915 0.001560 0.001874 0.003979 -0.003811 0.003282 0.003414 0.001461 -0.002759 -0.002279 -0.000819 0.000476 -0.000239 -0.000600 0.003088 0.003913 0.003114 0.003729 0.000520 0.004592 0.001191 0.001019 -0.001818 0.001821 -0.004457 -0.003825 -0.003845 0.001441 -0.003105 -0.001587 -0.004997 -0.003079 0.004566 0.000035 -0.003423 0.000578 0.004296 0.003789 -0.001155 -0.002042 0.002590 -0.002471 -0.002732 -0.003999 0.003542 -0.000501 0.000485 0.002624 0.002807 -0.000702 -0.003153 0.003512 -0.004600 0.004395
have 0.000304 -0.001417 0.000831 0.004084 -0.000705 -0.001565 0.003235 0.001204 -0.000564 0.002120 -0.001124 -0.003962 -0.000467 -0.001285 -0.002461 0.004443 0.001988 0.000952 0.002391 0.000365 0.001979 0.004098 0.003517 -0.003151 -0.002349 -0.004440 0.005068 -0.002796 0.001639 -0.004399 -0.002865 0.000071 -0.003998 -0.000932 -0.000097 -0.001376 0.000646 0.000309 -0.001043 0.001514 0.001661 0.001867 0.000549 -0.001755 0.000802 0.004079 0.000919 0.004608 -0.000800 0.002410 -0.004184 0.002287 0.000431 -0.005326 -0.002707 0.000394 0.002585 -0.004130 0.000372 0.003331 0.001577 0.004162 -0.004066 -0.002600 0.003893 0.002541 0.001026 0.003283 0.003894 0.004606 0.005053 -0.003518 -0.003925 -0.004252 -0.005176 0.004648 -0.004069 0.003474 0.001592 -0.000161 -0.001540 -0.001418 -0.002409 0.004231 0.002496 -0.005028 -0.000134 -0.002270 -0.004886 0.003600 0.002599 -0.002312 0.003371 -0.001929 -0.001731 0.004091 0.004618 -0.000186 0.004369 0.003548
has -0.002007 0.004668 0.001671 0.005381 -0.005300 0.002789 0.000652 0.000357 -0.003228 -0.001773 -0.002417 -0.002135 0.002875 -0.000644 -0.005092 0.002326 0.000191 0.002244 0.000506 -0.001101 0.005009 -0.004494 0.004712 0.004373 -0.001057 -0.003132 0.001231 -0.003198 0.003061 -0.002099 -0.002042 0.004451 0.004115 -0.000008 0.004282 -0.002101 0.005402 -0.000769 -0.002350 -0.004126 0.004986 -0.000577 0.002467 0.002244 0.002656 -0.004516 0.004129 0.004292 0.000846 0.004927 -0.002573 0.001653 -0.001108 0.001560 -0.001360 0.003198 -0.004508 -0.004790 -0.004453 -0.004109 -0.001518 0.004674 -0.004157 0.001864 0.000086 -0.001390 -0.002795 -0.002996 -0.004562 0.002122 0.001390 -0.000919 0.001723 -0.004024 0.004656 0.003323 0.001027 -0.001980 -0.000776 -0.000268 0.004402 0.004215 -0.000356 0.000669 0.003293 0.004917 0.001051 0.002722 -0.001715 0.004390 0.003316 0.001029 0.003096 0.004135 0.002531 -0.003672 0.000187 0.004730 0.002693 -0.000718
universities 0.001779 0.003309 -0.003829 -0.002472 -0.003452 0.004342 0.002686 0.000804 -0.002590 0.003210 -0.000534 0.004585 0.001860 -0.000603 -0.004413 0.004359 -0.003369 -0.003149 -0.000376 -0.001156 -0.003269 0.002486 -0.002797 0.001827 0.002457 -0.003016 0.001082 0.002279 0.001396 0.000977 -0.002002 0.002615 0.004449 -0.000787 0.003362 -0.004846 0.003798 -0.003015 -0.001528 -0.001666 -0.004100 0.003664 -0.001335 0.001096 -0.000160 -0.003673 -0.002992 -0.004404 0.000207 -0.001974 -0.001635 -0.003616 0.002917 -0.003968 0.005100 -0.003384 0.000678 -0.004515 0.002887 -0.003589 -0.000218 0.002576 -0.003468 0.000428 -0.003172 0.002438 0.002322 -0.003252 0.003756 -0.004942 0.003486 0.000447 -0.001243 0.002497 0.002195 0.004759 -0.002880 -0.005450 0.004257 0.003362 0.002146 0.000674 0.001880 0.002953 -0.001471 0.002859 0.002426 0.001281 -0.001485 0.002341 -0.005051 0.002768 0.003637 -0.002051 -0.004111 -0.002876 -0.001956 0.004329 0.000238 -0.002084
are 0.001850 -0.000866 0.001196 -0.003229 0.005473 -0.003409 0.004384 -0.003103 0.000880 0.003427 0.002044 0.001286 -0.000581 0.003139 0.005124 -0.000171 0.000375 -0.004383 -0.001419 -0.000045 0.004104 -0.004028 0.002065 0.000490 0.001071 -0.004692 -0.003419 -0.002208 -0.004896 0.001179 0.003731 0.000231 0.000121 0.001534 -0.002861 -0.000623 0.000450 0.003324 -0.002640 -0.002534 0.002452 -0.001479 -0.004738 -0.004367 -0.003290 -0.000241 0.001435 0.003810 0.003732 -0.002033 0.002998 -0.002878 -0.001072 -0.002459 -0.001664 -0.002873 -0.001755 -0.003516 0.004464 0.000883 0.004745 0.002129 -0.000292 0.002228 0.001527 -0.001764 0.000068 0.002425 -0.002002 -0.004616 -0.002167 0.003152 0.004787 0.001385 -0.004110 0.002680 0.000716 0.003205 0.003491 0.004506 0.001393 0.003182 0.002476 0.002079 0.003902 0.003727 0.004226 -0.001492 -0.004102 0.003045 0.000389 -0.000141 0.003943 -0.005068 0.004245 -0.004725 0.001951 0.000089 0.001339 -0.001630
Academy -0.002823 0.004147 -0.004675 0.004526 0.000634 -0.001179 0.005097 -0.004457 -0.000044 -0.004853 0.000976 -0.003280 0.001263 0.004907 0.003875 -0.000530 0.002175 0.002820 -0.000070 0.000191 -0.003456 -0.001134 -0.003451 0.002338 -0.000228 -0.000370 0.003885 0.000348 -0.001166 -0.002364 -0.004349 -0.000962 -0.004793 -0.002007 0.000083 0.004642 -0.003876 0.001851 -0.000010 0.002922 -0.003520 -0.004382 -0.001039 0.003270 -0.003308 0.002873 -0.002104 -0.002785 -0.004917 -0.001092 -0.001154 0.001459 -0.004497 -0.003461 -0.004772 -0.004157 0.001442 -0.001086 -0.001642 0.000406 0.004922 0.003327 0.001960 0.004228 -0.004855 -0.004461 -0.000365 -0.001539 0.004573 -0.000193 0.000413 0.004244 -0.000589 0.003860 -0.002600 -0.002188 -0.001726 0.000586 -0.002740 0.001697 -0.003682 -0.004261 0.003543 -0.002573 -0.001145 0.000757 0.000192 -0.004187 0.003893 0.004677 0.003290 -0.002184 0.000122 -0.001515 0.000426 0.005019 -0.001829 0.001871 -0.001950 0.003090
In -0.002056 0.000372 0.004170 0.000804 0.001176 -0.000458 0.005108 0.002633 -0.001888 0.001519 0.000560 0.004267 -0.002540 -0.004310 -0.003729 -0.001460 0.003455 -0.002340 0.001574 0.000964 -0.000765 -0.004275 0.002658 -0.001707 -0.001049 -0.001234 0.001673 -0.004181 0.000463 -0.004698 0.004806 0.001210 -0.001081 -0.003590 0.002348 0.003649 -0.001492 0.002746 -0.002501 0.004887 0.002086 0.001010 0.004311 -0.001622 0.004162 0.001787 0.002572 0.000580 0.003463 0.002307 -0.003721 0.001486 -0.002250 0.004216 -0.002747 -0.002256 -0.004588 -0.000485 0.000612 0.000341 0.003591 -0.001408 -0.000428 0.003490 0.000451 0.001401 -0.002018 -0.000205 0.001298 -0.003794 -0.004740 -0.004031 -0.000476 -0.004770 0.001277 -0.004123 -0.003043 -0.001202 -0.003924 -0.002435 -0.004764 0.005310 0.000976 -0.001144 -0.005003 -0.000885 -0.000600 0.004523 -0.002544 0.001411 0.001570 -0.003007 -0.000282 0.003327 -0.004407 0.000977 -0.004762 -0.004544 -0.004554 -0.000203
scientific 0.004908 0.003440 -0.004199 0.002337 -0.000999 0.004728 -0.002366 -0.002063 -0.004801 -0.000625 -0.004073 0.001896 0.002902 0.001484 0.001657 -0.001844 0.003505 -0.000863 0.003588 0.000985 -0.003475 -0.004138 -0.004678 -0.004096 -0.000473 -0.004105 -0.004642 0.002246 -0.000829 0.002633 -0.000520 -0.000034 -0.000024 -0.000483 0.003767 -0.001594 0.004632 -0.004726 0.002346 -0.003449 0.001406 -0.005033 0.000477 -0.004351 0.004535 0.004022 0.003049 0.004052 -0.003365 -0.003013 -0.003533 0.001729 0.004263 0.004936 0.002435 0.002447 0.004094 -0.000993 -0.002564 -0.003632 -0.004417 0.003431 -0.003561 -0.002499 0.002998 -0.002036 0.005105 -0.002471 0.000429 -0.002057 0.004098 -0.001817 -0.001003 -0.000112 0.004602 -0.004878 0.001587 0.003292 -0.004892 -0.000014 -0.001733 0.004432 0.000568 0.002120 -0.000748 0.001461 -0.002080 -0.004588 0.000074 -0.001569 -0.000074 0.004278 -0.000965 -0.002068 -0.001605 0.004157 0.004349 0.003887 0.004251 -0.002776
as -0.001692 0.000336 0.003903 -0.001460 0.003964 0.001198 -0.004518 0.004338 0.001804 0.004999 -0.003420 -0.003537 0.004302 0.001938 -0.004386 0.002439 0.002646 0.004041 0.002244 -0.003805 -0.004718 -0.004765 -0.004643 -0.002439 0.003571 0.000239 0.000639 0.003187 -0.003662 -0.002244 0.000951 0.004826 0.000593 -0.004902 0.003106 -0.002695 0.003317 -0.001082 0.003564 0.002329 0.000684 -0.003844 -0.004436 -0.003650 -0.004637 -0.003962 -0.002710 0.002041 0.000533 -0.004670 -0.004216 0.004619 0.000893 -0.002987 -0.002534 0.002476 -0.003070 0.000920 0.004606 0.003446 -0.002752 0.000040 0.001151 0.003145 -0.003578 -0.004877 -0.004159 -0.000106 0.001080 0.000650 -0.001797 0.004721 0.000839 -0.001303 0.000480 0.002265 0.001445 -0.002569 -0.004446 -0.001400 0.001174 -0.002554 0.002478 -0.004128 -0.002408 0.003002 -0.002952 0.001386 -0.000028 0.004271 -0.002480 -0.004530 0.002353 0.002860 0.004023 0.004247 -0.004884 -0.002583 0.001098 0.004399
Chinese -0.003053 0.002720 -0.004733 -0.001344 0.003931 0.001370 0.003907 0.001209 0.002457 0.003533 -0.001487 -0.003430 0.002141 -0.000877 -0.004185 0.000497 -0.004634 -0.002985 0.003171 -0.005190 -0.001931 -0.004480 0.005332 0.001012 -0.002107 0.004311 0.000172 -0.000410 0.000621 -0.002182 -0.002005 -0.001252 -0.002516 0.000689 0.002509 -0.004732 0.005012 0.002491 0.002767 0.003137 -0.004265 -0.000643 -0.000557 0.002707 -0.000655 0.002296 0.001675 0.001912 0.001258 -0.003336 0.002428 0.003110 0.003810 -0.002574 -0.002736 -0.001340 -0.001871 0.003022 0.001320 0.001885 -0.001102 -0.003806 -0.003980 -0.001135 -0.003562 0.002881 0.000987 0.001737 0.000183 -0.004295 -0.002741 -0.000146 -0.003336 -0.004749 0.002351 0.002270 -0.002220 0.003029 -0.000649 0.003595 0.001477 0.000892 -0.003298 0.000523 0.003766 -0.001647 0.003478 0.004289 -0.001726 0.002209 0.004126 -0.004085 0.003230 -0.002641 0.003064 0.001941 -0.001515 -0.002803 0.001203 0.003971
its -0.000698 0.001006 0.002175 0.003487 0.001798 -0.002679 0.004155 0.002810 -0.001812 -0.001865 0.003703 -0.003684 0.001310 -0.002232 0.003340 -0.001367 0.002297 -0.003140 -0.000169 0.003110 -0.000956 -0.003433 0.001482 0.002511 -0.002138 -0.000609 0.004004 0.003709 0.002129 0.000946 0.003271 0.004088 -0.004927 -0.001072 0.000499 0.002402 -0.004060 -0.001011 -0.002127 -0.000994 0.000056 0.001584 -0.000022 0.001050 0.000938 -0.000883 -0.004954 -0.003031 -0.001776 -0.003467 0.001061 0.001060 0.000110 -0.001695 0.001486 -0.003009 -0.005013 0.002392 -0.000651 0.002040 -0.003141 -0.004423 -0.001253 0.001984 -0.003906 -0.002936 -0.000363 0.001195 0.002364 -0.003835 0.001250 -0.001247 0.001807 -0.002958 0.000294 -0.003361 -0.004781 -0.000227 -0.003178 0.001378 0.000409 0.002883 -0.001036 0.004900 0.000103 -0.000177 0.002472 0.000670 -0.001367 -0.000266 -0.003175 -0.001049 -0.004636 -0.000325 -0.002277 0.000154 -0.004796 0.000500 -0.002089 0.000555
was 0.003223 0.001463 0.004701 0.001125 -0.003241 -0.000519 -0.001490 0.004984 -0.001626 0.004719 0.000475 -0.003057 -0.004386 -0.001553 -0.004064 0.001063 -0.000850 0.004866 0.004447 -0.003585 -0.000865 -0.000161 0.000895 0.002962 -0.000121 -0.000847 -0.002364 0.004151 -0.004965 0.003291 -0.003144 0.001914 -0.001452 0.004677 -0.003460 -0.003410 0.004058 0.000881 -0.002116 -0.004676 -0.002627 -0.003787 -0.002935 0.004594 0.003616 0.002033 -0.000351 0.003265 0.000063 -0.001302 -0.002308 0.004483 -0.001341 -0.000044 -0.002169 0.003628 -0.001282 -0.002097 0.002272 -0.003457 -0.004148 0.003326 0.002409 0.001014 -0.002829 0.001059 0.001420 -0.001787 -0.004183 0.003707 -0.000455 0.002713 -0.002642 0.000954 -0.000773 -0.001186 -0.003999 -0.002786 -0.004168 -0.002055 0.002426 0.001227 0.001547 -0.004864 0.001598 0.000262 -0.002899 -0.003140 -0.003175 0.003663 0.004838 0.004306 -0.001904 0.003140 0.000141 0.003309 -0.000186 0.001348 0.002683 -0.003787
key -0.000856 0.002273 -0.004871 -0.001899 -0.003621 -0.004048 -0.003091 -0.001504 -0.001156 0.000359 -0.000746 0.001860 -0.003011 0.003695 -0.004829 0.001628 -0.000787 0.000619 -0.003524 -0.003073 0.003076 0.004742 -0.001773 0.001991 0.003749 0.003922 -0.004082 -0.004606 -0.003341 0.003825 -0.004054 -0.000745 0.004550 0.000318 0.001999 -0.001911 0.001936 0.003370 -0.004844 0.002540 0.004970 0.002389 -0.002164 0.003108 -0.003986 -0.000492 0.004099 -0.002037 -0.002107 -0.003660 -0.004839 0.001869 -0.002946 -0.002317 -0.000043 -0.004476 0.000670 -0.003546 0.000877 0.001931 -0.004090 -0.000867 0.001952 -0.000825 -0.004580 0.000287 0.001663 0.000109 0.004454 0.000865 0.003995 -0.003638 -0.003665 0.003033 -0.001059 -0.003400 0.004170 -0.001611 0.002459 0.002183 0.003819 0.001314 0.002483 -0.001502 -0.002358 0.003993 -0.000773 0.004687 0.001583 0.001293 -0.003822 0.004520 -0.000623 0.000943 -0.001010 -0.002531 0.003990 0.000847 -0.005018 0.001239
by -0.003496 0.001285 0.001622 -0.000804 -0.004299 -0.000285 -0.000329 0.003012 -0.002254 -0.000952 -0.002722 0.001807 0.004939 -0.003140 0.003319 -0.002614 -0.004299 -0.003706 0.004282 0.003981 -0.002120 0.004322 0.003382 -0.000692 -0.000300 0.001113 -0.003341 -0.004929 -0.002235 -0.004927 0.001829 0.000612 -0.001811 0.002760 -0.003655 -0.002472 -0.002048 -0.003089 -0.004043 0.003442 -0.004041 0.001886 -0.003812 -0.005156 0.000530 0.003910 0.003638 -0.001639 -0.004745 0.003012 0.003159 0.003591 0.001876 0.002957 0.003816 -0.000340 0.000553 0.000195 0.001853 0.002053 0.000211 0.003215 0.000068 0.003123 -0.002133 -0.003226 0.004724 0.002442 -0.002428 0.000797 0.004603 -0.004272 -0.003984 0.001160 -0.002814 0.002567 0.000741 0.001670 -0.004035 -0.004195 0.001231 -0.000743 -0.004054 -0.001231 0.001751 -0.003208 0.004044 0.004408 0.004432 0.002183 -0.001093 0.002250 -0.001957 -0.001947 0.001150 0.000839 0.003685 -0.002622 0.002691 0.004197
national 0.003094 0.003737 0.001976 0.000734 -0.003398 -0.000297 -0.001688 -0.002749 0.000935 -0.001880 0.004187 0.004007 -0.002409 -0.003934 -0.003023 0.000008 0.002279 -0.002855 -0.002493 0.003551 -0.000796 0.001233 -0.002622 -0.004013 0.000167 -0.000273 -0.003425 0.001304 0.000424 0.001604 -0.003591 0.002501 -0.002807 0.000207 0.002824 -0.004793 -0.001771 0.003689 0.003546 0.000326 0.003724 0.004509 0.003289 0.003542 -0.003982 0.001507 0.002036 0.001192 0.003007 -0.004701 0.002712 0.002343 -0.002431 -0.002393 0.001363 -0.001493 0.002930 -0.000573 0.002811 0.004943 -0.002023 -0.003602 0.003998 0.000470 0.004821 0.001358 0.004971 0.000448 0.000204 -0.003588 -0.001442 -0.004737 -0.003408 0.002435 -0.004742 -0.001295 0.003654 0.001951 0.001926 -0.003151 -0.000533 0.000749 0.004908 -0.002972 -0.002516 -0.002384 0.002467 -0.000460 -0.004376 0.000070 -0.002856 0.003060 -0.002069 -0.004691 0.000919 0.003552 -0.001224 0.002536 0.000162 0.000467
